<?xml version="1.0"?>
<opencv_storage>
<!-- Created using Computer Vision Toolbox(tm) for MATLAB(R) -->
<!-- Version 9.7.0.1296695 (R2019b) Update 4 -->
<!-- Compatible with OpenCV 3.4 -->
<cascade>
  <stageType>BOOST</stageType>
  <featureType>HOG</featureType>
  <height>32</height>
  <width>33</width>
  <stageParams>
    <boostType>GAB</boostType>
    <minHitRate>9.9500000476837158e-01</minHitRate>
    <maxFalseAlarm>3.0000001192092896e-01</maxFalseAlarm>
    <weightTrimRate>9.4999999999999996e-01</weightTrimRate>
    <maxDepth>1</maxDepth>
    <maxWeakCount>100</maxWeakCount></stageParams>
  <featureParams>
    <maxCatCount>0</maxCatCount>
    <featSize>36</featSize></featureParams>
  <stageNum>9</stageNum>
  <stages>
    <!-- stage 0 -->
    <_>
      <maxWeakCount>2</maxWeakCount>
      <stageThreshold>-1.8279342353343964e-01</stageThreshold>
      <weakClassifiers>
        <_>
          <internalNodes>
            0 -1 1 5.5549908429384232e-02</internalNodes>
          <leafValues>
            -9.4999998807907104e-01 7.9816514253616333e-01</leafValues></_>
        <_>
          <internalNodes>
            0 -1 23 5.5382635444402695e-02</internalNodes>
          <leafValues>
            -9.8095858097076416e-01 8.0145239830017090e-01</leafValues></_></weakClassifiers></_>
    <!-- stage 1 -->
    <_>
      <maxWeakCount>3</maxWeakCount>
      <stageThreshold>4.7402452677488327e-02</stageThreshold>
      <weakClassifiers>
        <_>
          <internalNodes>
            0 -1 6 4.3349742889404297e-02</internalNodes>
          <leafValues>
            -9.0862941741943359e-01 6.7857140302658081e-01</leafValues></_>
        <_>
          <internalNodes>
            0 -1 20 2.0338721573352814e-02</internalNodes>
          <leafValues>
            -9.6628803014755249e-01 5.0574547052383423e-01</leafValues></_>
        <_>
          <internalNodes>
            0 -1 16 4.1690215468406677e-02</internalNodes>
          <leafValues>
            -1. 4.5028641819953918e-01</leafValues></_></weakClassifiers></_>
    <!-- stage 2 -->
    <_>
      <maxWeakCount>3</maxWeakCount>
      <stageThreshold>-1.0175884962081909e+00</stageThreshold>
      <weakClassifiers>
        <_>
          <internalNodes>
            0 -1 11 6.9291904568672180e-02</internalNodes>
          <leafValues>
            -9.3000000715255737e-01 7.6146787405014038e-01</leafValues></_>
        <_>
          <internalNodes>
            0 -1 0 8.7079145014286041e-02</internalNodes>
          <leafValues>
            -8.0031985044479370e-01 8.7083315849304199e-01</leafValues></_>
        <_>
          <internalNodes>
            0 -1 9 4.4931482523679733e-02</internalNodes>
          <leafValues>
            -8.8943153619766235e-01 7.1273142099380493e-01</leafValues></_></weakClassifiers></_>
    <!-- stage 3 -->
    <_>
      <maxWeakCount>3</maxWeakCount>
      <stageThreshold>-1.1284160614013672e+00</stageThreshold>
      <weakClassifiers>
        <_>
          <internalNodes>
            0 -1 8 6.4546048641204834e-02</internalNodes>
          <leafValues>
            -8.0269056558609009e-01 8.8372093439102173e-01</leafValues></_>
        <_>
          <internalNodes>
            0 -1 14 6.5303286537528038e-03</internalNodes>
          <leafValues>
            6.5340203046798706e-01 -9.2204892635345459e-01</leafValues></_>
        <_>
          <internalNodes>
            0 -1 18 8.2830004394054413e-03</internalNodes>
          <leafValues>
            -9.8402512073516846e-01 5.9632343053817749e-01</leafValues></_></weakClassifiers></_>
    <!-- stage 4 -->
    <_>
      <maxWeakCount>4</maxWeakCount>
      <stageThreshold>-8.1048393249511719e-01</stageThreshold>
      <weakClassifiers>
        <_>
          <internalNodes>
            0 -1 23 8.7493404746055603e-02</internalNodes>
          <leafValues>
            -8.5507243871688843e-01 7.2549021244049072e-01</leafValues></_>
        <_>
          <internalNodes>
            0 -1 24 1.5822127461433411e-02</internalNodes>
          <leafValues>
            4.2222511768341064e-01 -9.4281268119812012e-01</leafValues></_>
        <_>
          <internalNodes>
            0 -1 5 4.4763579964637756e-02</internalNodes>
          <leafValues>
            -8.5930001735687256e-01 5.0384557247161865e-01</leafValues></_>
        <_>
          <internalNodes>
            0 -1 4 4.0593482553958893e-02</internalNodes>
          <leafValues>
            -9.9027448892593384e-01 4.8355567455291748e-01</leafValues></_></weakClassifiers></_>
    <!-- stage 5 -->
    <_>
      <maxWeakCount>2</maxWeakCount>
      <stageThreshold>-2.1981844305992126e-01</stageThreshold>
      <weakClassifiers>
        <_>
          <internalNodes>
            0 -1 12 9.9279806017875671e-02</internalNodes>
          <leafValues>
            -7.7777779102325439e-01 8.5714286565780640e-01</leafValues></_>
        <_>
          <internalNodes>
            0 -1 7 1.2158239260315895e-02</internalNodes>
          <leafValues>
            -9.5927888154983521e-01 5.5795931816101074e-01</leafValues></_></weakClassifiers></_>
    <!-- stage 6 -->
    <_>
      <maxWeakCount>4</maxWeakCount>
      <stageThreshold>-6.8849664926528931e-01</stageThreshold>
      <weakClassifiers>
        <_>
          <internalNodes>
            0 -1 11 6.1437278985977173e-02</internalNodes>
          <leafValues>
            -9.5348834991455078e-01 4.4525548815727234e-01</leafValues></_>
        <_>
          <internalNodes>
            0 -1 21 2.5370581075549126e-02</internalNodes>
          <leafValues>
            -8.3016502857208252e-01 5.2190053462982178e-01</leafValues></_>
        <_>
          <internalNodes>
            0 -1 14 6.3163442537188530e-03</internalNodes>
          <leafValues>
            5.2307516336441040e-01 -8.7596178054809570e-01</leafValues></_>
        <_>
          <internalNodes>
            0 -1 10 4.8181835561990738e-02</internalNodes>
          <leafValues>
            -8.2666230201721191e-01 5.7265633344650269e-01</leafValues></_></weakClassifiers></_>
    <!-- stage 7 -->
    <_>
      <maxWeakCount>5</maxWeakCount>
      <stageThreshold>-1.3091977834701538e+00</stageThreshold>
      <weakClassifiers>
        <_>
          <internalNodes>
            0 -1 15 4.7321170568466187e-02</internalNodes>
          <leafValues>
            -7.6288658380508423e-01 6.6666668653488159e-01</leafValues></_>
        <_>
          <internalNodes>
            0 -1 22 7.3983982205390930e-02</internalNodes>
          <leafValues>
            -8.6037296056747437e-01 6.0218060016632080e-01</leafValues></_>
        <_>
          <internalNodes>
            0 -1 13 1.5053106471896172e-02</internalNodes>
          <leafValues>
            -6.9253605604171753e-01 5.2891325950622559e-01</leafValues></_>
        <_>
          <internalNodes>
            0 -1 2 3.5240530967712402e-02</internalNodes>
          <leafValues>
            -6.3151091337203979e-01 6.4642447233200073e-01</leafValues></_>
        <_>
          <internalNodes>
            0 -1 0 3.3089324831962585e-02</internalNodes>
          <leafValues>
            -1. 3.6017337441444397e-01</leafValues></_></weakClassifiers></_>
    <!-- stage 8 -->
    <_>
      <maxWeakCount>3</maxWeakCount>
      <stageThreshold>4.2484155297279358e-01</stageThreshold>
      <weakClassifiers>
        <_>
          <internalNodes>
            0 -1 17 2.4164777249097824e-02</internalNodes>
          <leafValues>
            -8.8571429252624512e-01 6.8333333730697632e-01</leafValues></_>
        <_>
          <internalNodes>
            0 -1 19 4.1197702288627625e-02</internalNodes>
          <leafValues>
            6.0413902997970581e-01 -8.9895099401473999e-01</leafValues></_>
        <_>
          <internalNodes>
            0 -1 3 4.2624011635780334e-02</internalNodes>
          <leafValues>
            -8.5123312473297119e-01 7.0641678571701050e-01</leafValues></_></weakClassifiers></_></stages>
  <features>
    <_>
      <rect>
        0 0 8 8 19</rect></_>
    <_>
      <rect>
        0 4 8 8 10</rect></_>
    <_>
      <rect>
        4 0 8 8 34</rect></_>
    <_>
      <rect>
        4 0 8 8 35</rect></_>
    <_>
      <rect>
        4 4 8 8 1</rect></_>
    <_>
      <rect>
        12 4 8 8 15</rect></_>
    <_>
      <rect>
        12 4 8 8 18</rect></_>
    <_>
      <rect>
        12 16 8 8 30</rect></_>
    <_>
      <rect>
        16 0 8 8 6</rect></_>
    <_>
      <rect>
        16 0 8 8 24</rect></_>
    <_>
      <rect>
        16 0 8 8 26</rect></_>
    <_>
      <rect>
        16 0 8 8 33</rect></_>
    <_>
      <rect>
        16 4 8 8 6</rect></_>
    <_>
      <rect>
        16 4 8 8 20</rect></_>
    <_>
      <rect>
        16 12 8 8 13</rect></_>
    <_>
      <rect>
        16 12 8 8 24</rect></_>
    <_>
      <rect>
        16 16 8 8 8</rect></_>
    <_>
      <rect>
        0 0 8 16 31</rect></_>
    <_>
      <rect>
        4 0 8 16 12</rect></_>
    <_>
      <rect>
        8 0 8 16 17</rect></_>
    <_>
      <rect>
        16 0 8 16 21</rect></_>
    <_>
      <rect>
        16 0 8 16 24</rect></_>
    <_>
      <rect>
        0 0 16 8 19</rect></_>
    <_>
      <rect>
        0 0 16 8 33</rect></_>
    <_>
      <rect>
        0 12 16 8 13</rect></_></features></cascade>
</opencv_storage>
